-0.0942803   0.0159525   -0.0532815   0.0615296   0.0223766   0.00397778   -0.018699   0.0767934   0.063997   0.0506558   -0.0495311   0.0703151   0.0443377   0.00986862   -0.0268009   -0.0773777   -0.0640045   -0.0162209   -0.0542203   -0.0509677   0.0929919   -0.00200385   -0.0591604   -0.0791829   -0.0784405   -0.013871   0.013041   0.0199573   0.0253087   0.026254   -0.050909   0.0360329   
-0.0287518   -0.0273213   -0.0853596   0.0263448   0.0570808   0.0604561   0.0109795   -0.0271587   0.0732952   0.0471683   0.0872826   0.0820006   0.0143869   -0.0550908   0.000864132   -0.0388176   0.0708919   -0.0433198   0.0564399   0.0676394   0.0944392   0.0949466   0.0270124   -0.0113234   -0.0334127   -0.0279759   0.0670252   -0.0758449   -0.0142235   -0.0637909   0.038511   -0.0701624   
0.615463   -0.291645   0.0618425   -0.0322431   0.022884   0.0409571   0.0665819   0.0471363   0.00486435   -0.0440622   0.0501538   0.00198035   0.000143132   0.0861023   0.0502767   -0.0610511   0.0248334   -0.0125838   0.0486264   0.0265691   0.0201709   -0.0167656   -0.0534779   -0.0406067   -0.00559816   0.0605042   0.0104935   0.0932482   0.051521   -0.0195268   -0.0504283   0.0350288   
-0.302046   -0.222345   0.17916   0.00834117   -0.0541882   0.0861771   -0.0552243   0.0783956   0.0412561   -0.0269665   -0.00535249   -0.0676843   0.0891572   0.0395578   -0.0531841   0.0735195   0.0637941   0.0218586   -0.0465136   -0.0488688   0.063009   0.00317133   -0.0527783   0.00818628   0.048103   -0.00902158   -0.0310735   0.01953   0.0393922   0.0522741   0.0463352   0.00317667   
-0.119314   0.260358   0.0291404   -0.0738581   0.0104775   0.0360222   -0.00541124   -0.0616813   0.0861344   0.0812423   0.0161707   -0.019452   0.00255181   -0.0143783   0.0682215   -0.0245471   -0.000182653   -0.0324194   0.0920199   -0.0278851   0.049358   0.0192737   -0.0457018   0.0532301   0.0669024   -0.0104102   0.00765755   0.0757787   -0.0751933   0.09406   0.0202029   -0.0711611   
0.926411   -1.09924   -0.138056   0.0296828   0.0350822   -0.045376   0.0673777   -0.0584181   -0.0607627   0.050047   -0.0250385   0.084687   -0.0299359   -0.0211451   -0.055454   0.0482899   0.0660585   0.0438998   0.0250417   0.0507627   -0.0357733   -0.0547169   -0.0797169   -0.0693239   0.0610916   0.0692096   -0.0431489   -0.0597693   0.0168116   -0.0775059   -0.0600897   -0.000460372   
-0.202934   0.0933681   0.00986591   -0.0670701   -0.00357402   -0.0446603   0.0418383   -0.0291882   -0.00357936   -0.0393249   0.0211269   0.0132012   0.0300192   -0.0519665   0.00822367   0.0885324   0.0417582   0.0818404   -0.0467592   -0.0212091   -0.0487887   0.0941562   5.23392e-05   0.0946529   -0.0629363   0.029405   -0.0634811   -0.00339778   0.0830154   -0.0715242   0.0765584   -0.029247   
-0.290901   0.207368   -0.104856   -0.044655   0.0299124   0.0257253   -0.000967742   0.00161184   0.0246197   0.0310767   0.0695888   0.0650385   0.0293356   0.0461589   0.0190066   -0.0143516   -0.0477526   0.0491337   0.017148   0.0783903   -0.0374984   -0.0469355   0.0258267   0.0422388   0.0223072   -0.0185228   0.00653066   -0.0659325   0.0496304   0.0271085   0.0285665   0.0409464   
0.750117   -0.557618   0.193285   0.0718532   0.0795225   0.0275732   0.0473446   -0.0724375   0.0368607   0.090893   -0.0248729   0.0196101   -0.0264805   -0.0495631   -0.061003   0.0720829   0.0689639   0.0502553   -0.0528957   -0.02279   -0.0661141   -0.0665947   0.0321715   0.0635003   0.0153909   -0.00155522   -0.00842875   -0.0277195   0.00147298   0.00771096   -0.0532856   -0.0234683   
-0.0737703   -0.175753   0.0127665   0.0878381   0.0728359   0.0468799   -0.0274899   0.0851997   -0.0577345   -0.068496   0.0573692   0.011802   0.0266866   0.08732   -0.0673531   0.0732365   0.0344253   -0.0236285   -0.0616599   0.00838389   -0.0402596   -0.0291989   0.0809966   0.0164537   0.0359902   -0.0599562   0.00619419   -0.013652   0.00694189   0.0588379   0.00912091   -0.0130859   
-0.247458   0.59914   0.150741   -0.0108428   -0.0789692   0.0438784   -0.0623916   0.0290365   0.0710681   0.0060126   0.050784   0.00695791   -0.0134811   0.0574386   0.0167421   -0.017508   0.0872506   0.0303984   -0.0490985   -0.0145065   -0.0569654   0.0500737   0.086551   0.0270978   -0.0751292   -0.0222773   -0.0702158   0.0318618   -0.0569654   0.0682376   0.0712551   0.0244542   
-0.00989896   0.0973677   -0.0767135   -0.057868   0.0438838   0.0280004   -0.0419259   -0.0684587   -0.050439   0.0292181   -0.0203279   -0.0241038   -0.0156761   0.0356751   0.0604187   0.0612038   0.0121438   0.026943   0.0596817   0.0776052   -0.0546582   0.0302809   -0.00957701   -0.0356024   -0.0561055   0.0696582   -0.0684213   -0.00513352   0.0203365   -0.0271   0.015909   -0.0405266   
-0.484572   0.188852   -0.010249   -0.056426   -0.0302564   0.0579192   0.0766652   0.0581863   0.0501645   0.027664   -0.016803   0.0699145   -0.0400139   0.0711269   -0.0398483   -0.0363288   0.014921   0.0923457   -0.0705843   -0.0657509   0.011818   -0.00530976   -0.063433   -0.0347105   0.076019   -0.0392662   -0.0543538   -0.0581083   0.0830367   -0.0659806   -0.0717592   -0.0697244   
0.578006   -0.0323406   0.137121   -0.00426298   0.0855789   0.0665072   0.0134896   0.067367   0.0413683   -0.0104048   -0.0346464   -0.0792416   0.0119782   0.0870904   -0.0102286   -0.0378082   0.0224728   -0.0353514   0.039702   0.0854241   -0.00378765   0.0757894   -0.0787449   0.084671   0.0252713   0.0575774   0.0209186   -0.0550748   -0.0410927   -0.0129737   -0.0792523   -0.00686392   
-0.246875   0.0948975   -0.052445   -0.0686509   0.0619355   0.035862   0.0410105   0.0604721   0.012774   0.039985   -0.055016   0.0406633   0.047382   0.0561034   -0.0745631   0.0720188   0.0327911   0.0436488   -0.0650459   0.0165979   0.0858834   -0.0697137   -0.0318799   -0.0545941   0.0918116   0.0284971   -0.0288571   0.0814345   -0.0156815   0.0415445   -0.0417389   -0.0527142   
0.347063   0.211805   0.258049   -0.0613768   0.077963   -0.00269814   -0.0659806   0.0568671   -0.049937   0.0905191   0.0557776   0.0723179   -0.0431382   -9.18607e-05   -0.0793431   0.0513608   -0.0600417   -0.00917646   -0.0255512   0.0937075   -0.0732493   -0.0358855   -0.0468767   -0.0366546   -0.0531361   0.0285559   0.0749402   0.0843399   -0.0457605   0.0564399   0.0329727   0.0349327   
-0.403773   0.677609   0.190082   0.0362305   -0.0536167   0.0313598   0.0196689   -0.00614292   0.0850288   0.0146005   0.0212497   0.0138795   -0.0353247   -0.010533   -0.0187043   -0.0735911   0.059169   -0.045611   -0.0677003   -0.0118522   0.0233807   -0.0675881   -0.045408   -0.0527195   0.032759   -0.000492416   0.025752   0.0420359   -0.00277291   0.0397821   -0.0106078   0.0662508   
-0.100407   -0.0869102   0.127013   0.0733006   -0.0114516   0.092805   -0.047571   0.0767507   0.0205287   -0.00263939   0.0297842   0.0439906   -0.071316   -0.0300267   -0.0344649   -0.00866375   0.0766813   0.0442843   0.0474781   0.0768094   -0.0111258   -0.0104529   0.0781767   -0.0259944   -0.0120818   0.0198505   -0.0181275   0.0483967   0.0504369   0.0488667   0.0494008   -0.0556195   
-0.139079   -0.481579   0.307884   0.0794478   -0.0156281   0.0105896   -0.0608588   0.0788015   -0.0444627   0.010643   0.0345962   -0.00325892   0.0403375   -0.0641754   -0.0660767   -0.0667389   -0.0751346   -0.0178605   -0.0262348   0.0420252   -0.055032   -0.0109015   -0.0681275   0.0382546   0.0468639   -0.0452264   0.0414537   0.0277494   0.0346069   0.0151987   -0.0627975   0.015439   
-0.380363   0.294578   -0.0484485   0.0897447   0.0473766   0.0129182   0.0389863   0.0412401   -0.0148804   -0.011991   -0.0712572   0.0617112   -0.0503269   -0.0693559   -0.0256526   0.0572837   -0.0428178   -0.0236659   0.00481628   -0.0783978   -0.00302393   0.00887524   0.0260404   0.0527441   -0.00981201   -0.0187844   0.0674631   0.084906   0.0290793   0.0945247   -0.070643   0.0184993   
-0.0509735   -0.0738235   -0.0693261   -0.0302617   -0.0753269   0.0271993   -0.0115424   -0.0767421   -0.0745685   -0.000252083   0.0701389   0.083934   -0.00966781   0.0472752   0.0270284   0.0614655   0.0731991   0.0219547   0.0241284   -0.0661728   0.0588058   0.000885495   0.0233593   0.023151   0.0196101   0.0628114   0.0377313   -0.019874   -0.0782109   -0.0332205   -0.0202264   -0.0393837   
-0.142239   0.312203   0.0578075   -0.0595503   0.0469761   0.030062   0.0764409   -0.0479716   0.0137246   0.0778509   0.0565146   0.0889116   -0.0454614   0.0777708   0.0595482   0.0868447   0.068542   0.0758107   0.0300246   -0.0475443   0.027963   -0.0336264   -0.0361365   0.048135   0.0579192   -0.0500865   0.0449306   0.00416471   -0.0657402   0.0611451   0.0696849   -0.0581884   
-0.23614   0.374589   0.0143949   0.0533583   -0.0464228   0.0473606   0.0941295   -0.0773136   0.0333358   0.0410372   -0.0495257   -0.0673798   -0.0318799   0.0384095   0.0668116   0.0174151   -0.0150352   0.0564132   -0.0393089   0.0316909   -0.0394584   -0.0441957   0.0899316   -0.0306943   -0.0759944   0.0546133   -0.0534298   -0.0717806   -0.0783818   -0.0189981   0.0326789   -0.0199327   
0.711274   -0.441408   0.133198   0.015407   0.0423724   -0.0208513   0.0350662   0.0733433   0.0137086   0.0197543   -0.0705522   0.00151036   -0.0345022   -0.00530976   0.0710842   0.00515275   -0.0646988   0.0190173   0.0441455   0.0562316   0.0712391   0.0688464   -0.0287236   0.0712658   0.0328605   0.0506986   0.0650117   0.0539831   0.0725849   0.0789564   0.0796934   0.0113427   
0.00977357   -0.0860101   -0.0228534   0.0640344   -0.00514954   -0.0502788   -0.0798505   0.0350555   0.0553717   -0.0688485   -0.0642822   -0.0125091   0.0396806   0.061332   -0.0530346   -0.055   -0.0715189   -0.0194253   -0.0767528   0.0912241   0.0333358   -0.070611   0.0799765   0.0315574   -0.0044499   -0.0763149   -0.0375465   -0.0114089   0.034452   0.0568297   -0.0760051   0.0645578   
-0.265199   0.166309   -0.0164397   0.0921107   0.00109912   -0.0424119   -0.0273777   0.0568778   -0.0200555   0.00410596   0.0264035   -0.0620605   0.0922762   0.0522687   -0.0535954   -0.000129246   0.0445354   0.094781   0.0557135   0.032289   0.0287107   0.0855683   0.0404283   -0.0292843   0.0192523   -0.0291829   0.015941   0.0446635   -0.0368735   0.0156687   0.00621021   0.0866097   
-0.316172   -0.0141418   -0.0195258   -0.00199316   0.0597832   0.0504689   0.0930613   -0.0441903   0.0301581   0.0792181   0.0234768   0.0807189   0.00846934   0.00564409   -0.00129887   0.0756345   0.0845695   -0.0479876   -0.0359069   -0.0444734   0.0478359   0.0846977   0.029389   -0.0727633   0.0322356   -0.0739596   0.0173617   0.0152841   -0.00189169   -0.0692598   0.0943057   -0.0576437   
-0.283803   0.196372   0.0259654   0.0355416   -0.0218233   -0.0247073   0.0343773   -0.00815638   -0.00518693   -0.0412156   0.0387407   -0.0508716   0.00707007   0.00883786   0.0604775   -0.00386242   -0.0792096   -0.0205896   -0.0142181   -0.0574995   0.0647821   0.0483273   0.0759496   0.0325828   0.0338539   0.0100342   0.0484448   0.0490056   0.0874909   0.00152104   -0.0164292   -0.0603674   
0.0968279   -0.259539   -0.062745   -0.0609816   0.0721523   0.0532408   -0.0731532   -0.00708289   0.0838218   -0.0681436   -0.0511493   -0.0430261   -0.0595396   0.0234448   -0.0592886   0.028198   0.0215168   0.0408022   0.0480229   0.0802382   0.0372025   -0.0277622   0.061551   -0.0138176   0.0945621   0.0551901   -0.0442277   -0.0501506   -0.0120551   -0.0482867   0.0216717   -0.0457659   
0.0274102   -0.0537962   -0.0339835   -0.0268009   -0.058856   -0.0453226   -0.0719088   0.0549551   0.053182   0.0741818   -0.0796902   -0.00149113   -0.00538453   0.0602692   0.000735954   0.00660009   0.0511419   -0.0382621   0.0178957   -0.0637695   0.0813544   0.0764196   0.0699786   -0.0695642   0.00590579   0.0306067   0.0507627   0.0523115   -0.0352446   0.0792341   0.0585975   -0.0450662   
-0.0354246   -0.0391683   -0.057597   0.0583145   0.0432269   -0.0757915   0.0480549   0.0168383   0.0799872   0.0732205   0.0594627   -0.0265499   -0.0108855   0.00433027   -0.0707979   0.0340942   -0.0798505   0.0545012   0.0523328   -0.0415467   -0.0529171   -0.0699327   0.0373574   -0.0742801   -0.0194734   0.0421267   0.0596764   -0.00365413   0.0918009   0.0312209   -0.028323   0.00347041   
0.449073   -0.460565   0.0947367   -0.0549359   -0.0549733   0.0806494   -0.0259731   -0.0145813   0.0624215   -0.0718394   0.0624856   -0.0380004   0.0771299   -0.0351111   -0.0328626   -0.0435975   -0.039859   0.0680773   0.0730976   0.0753461   0.067837   0.0266225   -0.0728434   -0.0496326   -0.0478434   -0.0177163   -0.00137898   -0.0476138   0.0765317   0.0290312   0.0156099   0.0795439   
0.1444   0.0592795   -0.343692   0.161984   0.250052   -0.406234   0.151145   0.266406   -0.682365   -0.22597   0.404275   0.107535   0.530762   -0.499297   0.331278   -0.124483   0.567674   0.0323589   -0.0197207   0.502357   -0.146494   0.150463   0.474724   -0.457589   -0.135648   0.351031   0.4581   0.145294   -0.276585   -0.103866   -0.143038   -0.419109   
0.0466207   0.0620821   0.454503   0.217998   -0.1701   0.571317   -0.0739314   -0.218367   0.573818   0.36323   -0.306006   -0.0340331   -0.232913   0.348273   -0.042218   0.12005   -0.601307   0.181121   0.137285   -0.295992   0.12351   -0.107292   -0.367351   0.410633   0.145345   -0.0976564   -0.230963   -0.00417041   0.280936   0.225711   0.224361   0.524448   
-0.050403   0.0292864   0.0575749   0.0212429   -0.010198   -0.0527049   0.0628286   -0.0678949   0.0178641   -0.016528   0.0298339   0.0165258   0.0548391   0.0687685   0.0411556   0.018638   0.0411744   0.0538601   -0.0583891   -0.0155131   -0.0683167   -0.0789868   0.0342836   0.0219157   0.0811005   -0.0141156   0.0230834   -0.0876712   0.0475419   -0.0700476   0.0463125   0.124108   
0.0120403   0.0469725   -0.0891068   0.0736914   0.0387698   -0.0265298   -0.0234767   0.0850274   -0.0598457   0.0388351   0.00278599   -0.07312   0.0383994   -0.0182929   0.00457252   -0.041563   -0.0393706   -0.0310192   0.0226466   0.0988687   -0.00524421   0.0916629   0.00595776   -0.0446368   -0.0807909   0.107678   0.0920118   0.0212366   0.018933   -0.0228421   0.0271303   -0.0341037   
0.0145353   -0.086661   -0.0512771   -0.0545374   0.0973018   0.0168383   0.102937   0.0396832   -0.0329287   -0.101562   0.0285168   -0.0288949   0.0359565   -0.0935208   0.0862779   -0.033363   0.115898   0.0702628   0.00837829   -0.0131691   -0.059585   0.0279372   0.112347   -0.0786693   -0.0464414   0.0636996   0.102772   -0.0330579   -0.0824659   -0.0220773   0.0518916   -0.0316503   
-0.0187578   0.109132   -0.197223   0.0724589   0.0117154   -0.147596   -0.00590049   0.0343009   -0.184371   0.0510164   -0.00710082   -0.0515557   0.136688   -0.178217   0.105711   -0.0622658   0.111544   0.0796082   0.05461   0.105861   -0.0304034   0.0103828   0.185957   -0.136774   0.0628462   0.143559   0.216265   0.10135   0.0147355   -0.0445992   0.0610933   -0.162529   
0.0850602   0.0467229   -0.056614   0.0570777   0.000822651   -0.0456545   -0.0768296   -0.074094   0.00228838   0.0729971   -0.0599546   -0.0776606   -0.0447018   0.0631552   0.058101   0.0546988   0.0300368   -0.0271216   0.0578422   0.0786115   0.0693551   -0.0391145   0.0035779   -0.0741845   -0.0654928   -0.0762457   -0.0199131   0.0448851   -0.00624617   -0.0470589   -0.0263127   -0.0448397   
0.0877245   -0.0413374   -0.126863   0.0468066   0.00149499   0.0390425   -0.0291467   0.112968   -0.145977   -0.0803063   -0.0359467   0.0709189   0.0446832   -0.0593833   0.0324009   -0.0272508   0.0702741   0.0751972   0.109402   0.15238   -0.0706979   -0.0516829   0.0544377   -0.0101464   0.0835801   -0.0262505   0.155495   0.104944   -0.0276779   0.0113921   0.0316951   -0.0524379   
-0.0445376   0.0945799   0.160248   0.0480461   -0.00767937   0.0496348   -0.0934976   -0.0865021   0.130052   0.0434452   -0.0795339   -0.0453184   -0.0708938   0.101519   0.0393878   0.0569233   -0.00802677   -0.030039   0.0128473   -0.111496   0.110726   -0.0179719   -0.0953463   0.0978673   0.0390474   -0.0666582   -0.0980839   -0.0772742   0.0152694   -0.0170651   0.107986   0.137883   
0.107333   0.0326768   -0.0632396   -0.012187   0.101731   -0.157651   0.0983353   0.136709   -0.196131   -0.1215   0.0717314   -0.0690051   0.204944   -0.092432   0.104432   -0.0213378   0.141853   0.0433804   0.0485673   0.172074   -8.89436e-05   0.0891017   0.0517784   -0.138692   0.0393117   0.00100665   0.149281   -0.0204666   -0.0504527   -0.0699696   -0.111072   -0.168367   
0.0930559   0.00905071   0.0266035   -0.0668595   -0.0146768   0.0861986   0.0713546   -0.0196573   -0.0399959   -0.0295705   -0.0700629   0.0940831   -0.0474325   -0.0694941   -0.0398138   -0.0276388   0.0593496   0.033759   -0.0647223   -0.0317168   -0.0565081   -0.0415222   0.0200841   -0.0504817   0.0308207   -0.0598325   0.00176774   0.054016   -0.0220923   -0.070141   -0.0307669   0.039985   
0.0698042   0.00316409   0.0481994   -0.112835   0.115827   -0.0392735   0.0609149   0.0670669   -0.0328323   -0.0273451   0.0719414   0.104401   -0.0026891   -0.0464861   -0.0169904   0.0352259   0.136257   0.043196   -0.0747926   0.13749   -0.0477861   0.102356   0.0513197   -0.112861   0.000175675   0.0240617   -0.00591075   0.05896   0.0303053   -0.0627187   0.0578618   -0.0956329   
0.0837585   0.043407   0.0151596   -0.0272984   -0.023063   0.0654283   -0.0370832   -0.0531206   0.0137844   -0.0277908   0.0219948   0.0711421   -0.00224071   0.120915   -0.0933571   0.0359949   -0.0170672   0.098337   -0.0197854   -0.00467473   0.0747095   0.0730277   0.0510645   0.128548   0.0402891   -0.0429145   0.0220913   -0.0715946   0.0546794   0.0572621   0.0093008   0.151868   
-0.0626007   -0.0111224   -0.0802361   0.0367697   -0.0329359   -0.0587263   -0.0389185   -0.0454919   0.0615508   0.0479471   -0.0675654   0.00305812   -0.066693   0.0840029   -0.0630406   0.0186952   0.0954145   0.0172836   0.071   -0.00378062   -0.0154027   -0.00736153   0.0403884   0.0570882   0.0814705   -0.0284488   -0.0752273   0.0271121   -0.0770838   0.0300858   -0.0112891   0.0778199   
0.0395177   -0.0139245   0.0534105   0.0137643   0.01267   0.152209   -0.098   -0.0769719   0.0791966   0.0289807   -0.0792856   0.0742828   0.0346647   0.0166296   -0.0611005   0.0301008   -0.0875185   0.120182   0.026062   -0.0550964   0.0463038   -0.0244601   -0.0360111   0.144656   0.0183413   -0.0309058   0.0435637   0.0119818   0.0536139   0.0673538   0.101814   0.025694   
-0.054162   -0.0453841   -0.0662869   -0.026359   0.00333282   0.0274279   -0.0208095   -0.0656641   0.0242928   -0.0577823   -0.0287512   0.0637071   -0.00192183   0.092907   -0.0404477   -0.061157   0.0145471   -0.0349899   -0.079973   0.0226872   0.0518705   -0.0609199   0.0922897   -0.0175038   0.076142   0.0120518   -0.0384369   -0.02802   0.00146469   -0.0279671   -0.0102363   0.050075   
0.0689725   -0.0116872   -0.0109957   0.0481977   0.0493499   -0.0678168   -0.0646147   0.0537909   0.0601892   0.0299946   -0.0161035   0.00305735   -0.0582733   -0.0140945   -0.0441864   -0.0237608   0.082592   -0.0405246   -0.0249885   -0.0488355   -0.0217293   -0.0483425   -0.0299953   -0.0506842   -0.0502789   -0.0189728   -0.0635987   0.0102627   0.0860866   0.0604988   -0.00304622   0.0744496   
-0.0390113   0.0197635   0.00823368   0.0613881   -0.0444631   0.109793   -0.0408777   -0.0316379   0.0789407   0.0825248   0.00716907   0.0623246   -0.0803936   -0.0395772   -0.0334186   0.0770824   0.0356491   0.0183034   0.05679   -0.0454354   0.100995   -0.00227856   -0.0855249   0.0748123   -0.0496454   -0.0352534   -0.0246423   0.044423   0.0244904   0.0120352   -0.037253   0.116656   
-0.0449025   -0.0468794   0.112105   0.0531127   0.0126081   0.0831179   -0.0846223   -0.0276489   0.0973287   0.0797795   -0.0403611   0.0656215   -0.0504304   -0.011164   0.0676892   -0.106769   -0.0451111   0.0406341   0.0121019   -0.107338   0.0049591   -0.0870901   -0.129413   -0.00141834   0.12815   -0.00108674   0.0447257   -0.0296714   0.10859   0.0926438   0.117741   0.165637   
0.0913778   -0.026753   -0.104794   -0.0468568   0.0860653   -0.0712168   0.0878143   0.00492194   0.0214817   -0.0177123   -0.0207828   0.04219   0.126999   -0.0729588   0.0286359   0.00369651   -0.0186561   0.00286105   0.0283576   0.103584   0.051233   0.0465695   0.0237777   0.0113995   0.0198236   -0.00645753   0.0333821   -0.046278   0.0679422   0.0470822   -0.0218486   -0.0690357   
-0.0415275   -0.0222866   -0.0733892   0.076105   -0.0366184   -0.00882056   -0.0545512   0.0738632   0.0235363   0.0575025   -0.0467501   -0.000813086   0.0557847   -0.00770003   0.0327756   0.0583405   -0.0504123   -0.0234461   0.0898282   0.045772   -0.0451894   0.0702045   -0.0718561   0.0476487   -0.0730209   -0.0562165   -0.0632456   0.0182528   0.0194904   0.0135061   -0.0415086   -0.0675164   
-0.00382634   -0.0777526   -0.0966097   -0.0698495   0.0218872   -0.077887   0.0544848   0.0275582   -0.0531347   0.019591   0.0496567   -0.0191177   0.148003   -0.0647228   0.0328193   -0.0153581   0.169188   0.0449746   -0.00686567   0.0393706   0.0164137   0.0589426   0.051768   -0.10493   0.0606005   0.114999   0.0931555   0.048009   0.00444507   -0.0161081   -0.0491858   -0.0516101   
0.0379994   -0.0486776   0.0448116   -0.0512494   -0.0369519   0.0571451   0.0516183   -0.0227205   0.11847   0.0767313   -0.0196586   -0.0134457   -0.0241102   0.0520589   -0.0223946   0.0442644   -0.0186828   0.0147909   0.0767397   -0.066824   -0.0578692   -0.0641968   -0.096073   -0.0014782   -0.0210393   -0.0186312   0.0229979   -0.00776162   -0.0273046   0.0304593   0.0868925   0.104606   
-0.0215535   0.123092   -0.0154168   0.00800724   -0.0122928   0.0151933   0.0599605   -0.00497131   0.0343625   -0.0145363   -0.128496   0.0806523   0.00934008   -0.0808124   -0.0914803   -0.0428371   -0.0417976   0.0609349   0.00496064   -0.0525533   0.151376   -0.0963748   -0.0922518   0.0355096   0.0261714   -0.0458577   0.00109647   -0.0153656   0.0252201   0.0612582   0.130158   0.0826098   
-0.0379805   0.0442796   0.0784219   0.0194827   -0.0301236   0.155372   -0.0836692   0.00549052   0.0579515   0.00637271   -0.105625   -0.0623145   -0.0343173   0.142908   -0.0331334   0.0329   -0.0456221   0.00677027   0.0346399   -0.127227   0.101083   -0.0251915   0.0136519   0.0996693   0.105144   -0.0492446   -0.0271947   -0.00137745   0.0373904   0.0858894   0.0975748   0.0178413   
0.0513351   -0.0157307   -0.0373041   0.0645231   0.0576802   -0.0300302   0.0189519   -0.0487685   -0.0572378   0.0539986   -0.00815716   -0.0306196   -0.0493964   0.0158379   -0.0366785   -0.0236862   -0.0415577   0.0359482   0.0435413   0.0381604   0.0334001   -0.0700797   -0.0223867   0.0877198   -0.0229366   -0.0255292   -0.0504325   -0.0150901   -0.0300782   0.0888246   -0.0379124   -0.0331017   
0.0795852   0.0904463   -0.0127851   0.0272507   0.0476559   0.00598853   0.0476347   -0.0519056   -0.0089582   0.0583224   -0.0902899   0.0579146   0.0512723   -0.0628427   0.111324   -0.0274142   -0.0279522   -0.0610123   0.0825133   0.0598851   0.00489738   0.00543636   0.0474281   -0.118152   -0.0464811   0.0434059   0.103691   0.0201419   0.0721037   0.0877257   0.0705585   -0.0308074   
-0.00763656   -0.0432502   -0.0975886   -0.0650832   -0.0389853   -0.0678305   -0.0341881   0.0553939   -0.0294507   -0.00666476   0.143899   0.0461107   0.0299912   -0.0369317   -0.0530324   -0.0149235   0.143745   0.0658698   -0.0430903   -0.01345   0.0112534   0.0522962   0.0398301   -0.0470156   0.0539601   -0.00018018   0.102334   -0.056044   -0.0238743   -0.017725   -0.0944071   -0.000281884   
0.0722225   0.0635969   -0.209222   0.0999718   0.0973993   -0.155597   0.0858329   0.0375119   -0.241485   0.0256566   0.148527   0.0728606   0.250185   -0.150401   0.180635   -0.00918806   0.132358   0.0503519   0.0908051   0.0908061   0.034693   -0.0352646   0.0835236   -0.137368   0.0569257   0.157647   0.234803   0.0288699   -0.0619177   0.0181472   -0.00148379   -0.12549   
0.0714577   0.00866596   -0.0608732   0.0129039   0.00434679   0.00855595   -0.0488243   -0.0391777   0.00941409   -0.10716   0.0174966   -0.06601   0.0473492   -0.0525849   0.00553716   -0.00867737   0.0122088   -0.0539937   0.0281297   0.138403   0.030714   -0.00117171   0.0411598   -0.0990613   0.0678486   0.0805338   0.0474269   0.0551695   -0.00923411   -0.00449725   0.0384176   -0.0316882   
-0.0524957   -0.0767142   0.0805386   0.0141601   -0.0253289   0.0889424   -0.0199075   -0.0448955   0.158127   0.0782443   -0.0485151   -0.0521275   -0.129104   0.00164311   -0.0253249   0.0174038   -0.185537   -0.0394117   -0.0785402   0.0458685   0.0349634   -0.127148   -0.140964   0.110838   0.0743283   -0.003678   0.0422145   -0.1262   0.0822111   0.00957325   0.00720209   0.141197   
-0.0590471   0.0522107   -0.0215342   0.00500551   0.124093   -0.113875   -0.00466599   0.127693   -0.130369   -0.112701   0.0532852   0.0297386   0.163   -0.0369717   0.12741   -0.0134976   0.253687   0.0112276   0.0229878   0.0301585   -0.0074805   0.0833451   0.206383   -0.0476737   -0.0667518   0.000420464   0.0631613   -0.0018676   0.00238655   0.0179295   -0.0931746   -0.180936   
0.778894   0.000766221   0.0743052   0.161244   0.370774   0.375143   -0.0100266   0.3567   -0.286989   0.550016   0.0503997   -0.355359   -0.0622888   0.00114828   -9.19394e-05   0.0235127   -0.0310962   -0.397027   0.194499   0.118101   0.00440559   -0.29011   -0.214213   0.100484   -0.186748   -0.0588638   0.155239   -0.267489   0.501287   -0.00190072   -0.695384   0.305486   
-0.681873   0.611671   -0.215139   0.0704851   -0.298938   -0.0243542   0.0433577   -0.0978497   0.299268   -0.440531   0.0879681   0.182816   0.0485463   -0.0569743   0.281963   -0.0234388   0.0651684   0.435084   0.23087   0.036413   -0.0675445   0.205831   0.244603   0.148089   0.262751   0.0510474   0.1851   0.00368029   -0.08161   0.147858   0.0446999   -0.204409   
-0.0445288   0.0234801   0.0170966   -0.0322737   -0.0690958   -0.083256   0.0636186   0.0268148   0.0457412   -0.106463   -0.0659036   -0.00637102   0.0321331   0.0568786   -0.00870569   -0.0347503   0.00682812   0.117959   0.0399924   -0.0203456   0.0422189   0.139685   0.000802976   -0.0108348   0.0942322   0.0245555   0.0158201   -0.0147121   0.0255257   0.0882144   0.0809635   -0.0224613   
0.0676379   0.00280684   0.13858   0.0421665   0.0786397   -0.0334788   0.0196243   0.00186929   0.00803262   0.0606579   0.0935832   0.0322318   -0.00796552   -0.0272349   -0.023085   0.0340782   0.0802585   -0.00751883   -0.05386   0.0599022   0.0114383   0.0221679   0.068112   0.00643975   -0.0933566   -0.0351557   -0.00870147   0.0528935   0.0192107   -0.056425   -0.0430874   0.105824   
0.0555408   -0.0455049   -0.0262122   -0.0450134   0.0842496   -0.043187   0.0833741   0.0559467   -0.0669415   0.018725   -0.0401402   -0.0225714   -0.0507893   0.057763   0.0730307   -0.0257319   -0.0705419   0.0478668   0.0398093   0.00967145   0.0159843   -0.0227102   -0.0607598   -0.070424   0.0518335   -0.0751316   -0.0299652   -0.030452   -0.0660649   0.00494468   -0.0247875   0.0389909   
0.183791   0.0205836   0.14667   0.0375247   0.136042   0.037158   -0.0672137   0.0246458   -0.136549   0.162147   0.0948269   -0.00254346   -0.00999594   -0.000945933   -0.0616228   0.00891189   -0.0503675   -0.0758116   -0.0265365   0.0273971   0.0375437   -0.0211519   0.0321164   0.000260799   -0.0792792   0.0855949   0.083957   -0.0632667   0.0361567   -0.0195684   -0.0733353   0.141162   
-0.212945   0.168182   0.0267338   0.0306634   -0.00597517   -0.00590882   -0.0295593   0.0497976   0.0917539   -0.0839488   -0.0521462   -0.0914144   0.094404   0.0915896   0.0325915   -0.0595036   -0.0679364   -0.0154769   -0.014973   -0.0383086   0.0487837   0.0161223   0.0421555   0.0703107   0.0424682   0.0792016   -0.0802951   -0.0510768   -0.145121   -0.0319413   -0.0274411   -0.109752   
0.0984706   0.0278734   0.0893812   -0.0213005   0.0222064   0.0706457   -0.0716923   0.0543178   -0.0554051   0.0406239   -0.0411789   0.0101208   -0.0301988   -0.0509559   0.0576998   0.00264324   0.0664472   0.0425274   0.0034693   -0.0611993   -0.00216735   0.000559938   0.0595103   0.0740939   0.0754005   0.0095191   -0.0730616   -0.0693731   0.0164155   0.0427634   0.024373   0.0251326   
-0.104197   0.00916772   0.0186302   -0.0172612   0.00920241   -0.0782074   0.088977   -0.108582   0.0525858   -0.101588   -0.0176663   -0.0521668   -0.0211055   -0.039716   0.0708707   0.00684972   -0.066933   0.155163   0.0125967   0.0138471   -0.00165482   0.0995573   0.0330612   0.0456211   0.0471407   -0.044718   -0.0328226   0.0630239   0.0266502   0.0397626   0.0887674   0.0358007   
0.211231   0.0248713   -0.0110121   0.041398   0.0707963   0.0968373   0.0648849   0.0929811   -0.0119463   0.105364   -0.0102186   0.0562997   0.0885994   0.0101546   -0.0440275   0.023931   0.0369931   -0.0388219   0.0699891   0.029319   -0.0328921   -0.0341468   -0.0579874   0.0560799   -0.067156   -0.0548624   0.0714225   0.0320113   0.0780932   0.0193857   0.0640586   0.122231   
0.146205   -0.0284113   0.0207787   -0.0658784   0.0852456   0.10457   0.0163479   -0.0153408   -0.0886093   0.123691   0.0627234   -0.0516339   -0.0495005   0.0695   -0.0174423   0.0532108   -0.0686851   -0.0269661   -0.0709184   -0.0480342   -0.0156312   -0.0645961   -0.0460162   0.021236   0.0383218   -0.0183756   0.0133761   -0.0525423   0.114575   -0.00695572   -0.0243524   0.124726   
0.481747   -0.36887   0.095237   0.0175084   0.04419   0.0440308   -0.039388   0.0488992   -0.0439596   0.189204   0.0522033   0.011826   -0.00637757   -0.0494484   -0.0922397   0.00269014   0.0916146   0.0127754   -0.128238   -0.0408763   -0.064911   0.00509927   -0.0731209   0.0416767   -0.0248341   0.0188676   0.00410475   0.0175989   0.19661   -0.0110599   -0.0731486   0.210381   
-0.0951363   0.0655191   0.0735558   -0.0525   -0.114575   -0.0269531   -0.0596828   -0.0549779   0.0118843   0.0341986   -0.0766831   0.0895786   0.0590938   0.0579871   0.0573624   0.0522261   0.0288158   -0.0286286   -0.0642018   0.00522477   0.0423135   -0.0350619   -0.0204463   0.0556194   -0.0134533   -0.0185801   -0.0135015   0.0872325   0.0357309   0.0798387   0.0949731   -0.00194693   
0.479932   -0.24266   -0.00438728   0.0952737   0.0619328   0.149934   0.0255415   0.0334962   -0.115842   0.17948   -0.0721565   -0.0184495   0.00250496   -0.0419411   -0.136822   -0.0523995   0.0133383   -0.0774473   0.0373263   0.0436497   -0.0198462   -0.065674   -0.095918   -0.0546202   -0.053006   -0.0811275   0.0639605   -0.0474993   0.19201   0.0425497   -0.0560723   0.102917   
-0.0613433   0.0668926   0.0580001   0.0729099   -0.0135028   0.0156031   -0.0365307   0.0034911   0.0557875   0.00953297   0.08672   0.0249885   -0.0529919   -0.0177858   0.0724049   0.0567503   0.0506106   0.116057   0.0668872   -0.0678223   -0.0591612   -0.0586843   0.0913416   0.00341295   -0.0377342   0.0319744   -0.0594212   -0.0170178   0.0213978   0.0345217   0.102586   -0.0670834   
0.0272717   -0.0485646   -0.00675748   -0.0672147   -0.0125349   0.0508717   0.0542156   0.0638184   0.0423028   -0.0108078   0.00722548   0.0321178   -0.0652828   -0.0301945   -0.0481676   -0.0394254   0.0287672   -0.0726503   0.0914482   -0.0222176   0.0916859   0.0128948   -0.0698595   0.0201449   -0.00724041   -0.0548133   -0.0114839   -0.0529397   -0.0293931   -0.0421094   -0.0697236   -0.0345689   
0.181188   0.0394024   0.0316578   0.0279991   0.16523   0.0717811   -0.0750932   0.109481   -0.0354031   0.0363354   -0.0614513   -0.015946   0.0279712   -0.00779673   -0.088159   0.0354904   0.0883344   -0.100571   -0.0880241   -0.00789518   0.0629657   -0.126608   0.0629989   -0.0044428   0.0208209   -0.0487811   0.0570258   -0.0760048   0.0390462   -0.00510259   -0.000261763   0.0690945   
0.0225399   0.0247375   0.021523   0.0150059   0.0670341   -0.0351065   -0.0712281   0.0180542   -0.0265365   0.0322928   0.0678052   -0.0330247   0.0753389   0.00653122   0.0204912   0.0544263   -0.0756276   0.0718957   0.00551327   -0.0339789   -0.00514553   0.0469189   -0.0595406   0.0866766   -0.0703505   -0.041993   0.0416439   0.0178453   -0.0459043   -0.0779548   0.0907992   0.0328773   
-0.32979   0.290671   -0.0687439   -0.0650114   -0.0850712   -0.0698695   -0.0758422   -0.0985399   0.0704389   -0.110016   9.64874e-05   0.0551374   -0.0489685   -0.00735926   -0.0092716   0.049912   -0.0164523   0.0272971   -0.028256   -0.042767   0.00688464   -0.0524305   0.0224825   0.0267723   0.0916881   0.000749729   -0.0356094   -0.04485   -0.00913873   -0.070541   0.0197579   -0.0812833   
0.0863571   0.0340615   0.112492   0.0546666   0.0585271   0.0739222   -0.0292274   0.0512633   -0.103538   0.081757   -0.0225758   -0.0240657   -0.0797391   -0.00420728   -0.035879   -0.0229515   -0.0788895   -0.0564394   0.0514044   0.0659785   0.0293278   -0.0283501   0.0240679   0.0734027   -0.0138817   0.0815183   0.0667616   0.0248095   0.112442   0.069003   -0.014718   0.0172738   
0.0704161   0.0225756   -0.0119374   -0.0373971   -0.0175573   -0.0154122   -0.0220613   0.0123461   -0.116344   0.0612179   0.00756489   -0.0991515   0.0566622   -0.0576595   0.0178025   0.0627327   -0.00827672   -0.106346   0.0455903   0.0499545   -0.0225597   -0.121931   -0.0779725   -0.0643262   -0.00985743   -0.00804395   0.0244212   0.00513838   0.10254   -0.0369172   -0.0541733   0.0302615   
0.416078   -0.205501   0.0520334   -0.0382302   0.102683   0.061418   0.0609299   0.0119539   -0.053436   0.139508   0.0380385   0.0780491   -0.0671274   -0.0304408   -0.120668   -0.0797862   -0.0115986   -0.120875   -0.0773734   0.0513671   -0.0771762   0.0711007   0.0226853   0.047823   -0.07366   0.0055886   0.0384434   -0.000169638   0.16375   -0.0702153   -0.0536244   0.100039   
-0.00714729   0.0570739   -0.00712344   0.0655789   0.00235637   -0.0488363   0.0110498   0.099859   0.00469903   0.0335347   -0.0421161   -0.0189416   0.0552905   0.0944249   0.0015491   -0.0409559   -0.046392   0.0743987   0.0114064   0.0456927   -0.0771009   -0.00558806   -0.0522275   0.102203   0.100168   0.0114679   0.0837133   -0.0711853   0.0389107   0.0909992   0.030309   0.00128602   
-0.266326   0.212402   0.0338528   -0.0572861   0.021558   -0.0590653   -0.00395792   -0.0191961   0.105268   -0.0743728   -0.0562248   -0.0844043   -0.0135009   0.0307751   0.102583   -0.017829   -0.00221793   0.0516303   -0.0768662   -0.0860915   0.01603   0.03205   0.0892887   -0.0387885   0.093713   0.0310854   -0.0726181   -0.0531748   -0.15855   -0.0144037   0.067104   -0.0325533   
-0.115709   0.0631535   0.0788126   -0.0606961   -0.0993296   0.0586018   0.0375519   -0.031203   0.00768296   0.0309858   -0.0632808   0.0859525   -0.0156574   0.0692691   0.0650614   0.0572851   -0.0433464   0.0553977   0.061464   0.027566   0.0499655   0.0185982   -0.00574792   0.0524658   0.0125841   0.0496185   -0.0383354   0.0295045   0.0519787   0.00274607   0.0715252   0.0751639   
0.0158142   0.0843398   0.00387072   0.063989   0.0794633   0.0969163   0.00930128   0.0407398   -0.0739849   0.0301711   -0.0041264   0.0825517   -0.0427518   0.0220154   0.0343252   -0.00206341   0.0840292   0.0527608   -0.000658156   -0.00501439   0.0330661   -0.0151006   0.052336   -0.0301904   -0.0142914   0.0159715   -0.0378412   -0.0999142   0.0140982   -0.00377045   -0.050375   -0.000229535   
0.076445   0.0430253   0.0101651   -0.0268509   0.0572606   0.0032615   -0.0153968   -0.0901771   -0.0525257   -0.0385236   -0.0584678   -0.0761   0.00241119   -0.0691215   0.0410154   0.062467   0.00686865   0.00533871   -0.0641555   0.0591252   -0.0458542   -0.0103575   0.0858957   0.0560855   0.064057   0.0123736   -0.00609881   -0.0188376   -0.022504   0.0264687   -0.0500204   0.0391613   
-0.0622545   -0.0755174   -0.0452578   0.0369574   -0.037565   0.0890598   0.0690828   -0.00275424   0.0114689   -0.0124292   0.0619293   -0.0459314   -0.0701937   0.0552345   -0.0524519   0.0716206   -0.0522487   0.00552805   0.0712805   0.00338537   -0.0356517   -0.0745262   -0.0613055   -0.0115498   -0.0631048   0.0867896   0.0961282   -0.0471562   0.0713016   -0.0709736   0.057639   -0.0538209   
0.265049   0.0519995   -0.011438   -0.067717   0.059219   0.067586   0.0421322   0.108908   -0.0937701   0.176738   0.0583509   -0.0423443   -0.0228962   0.00348901   0.0212018   -0.0576877   0.0212198   -0.0397312   -0.0630771   0.0768222   0.0192709   -0.0151295   -0.00261552   -0.079543   -0.0304166   0.0685072   0.0726471   0.0294766   0.0453947   0.0103159   -0.0341135   0.023897   
0.301272   -0.102385   0.105008   0.0871632   0.052206   0.104788   0.059713   0.0176959   -0.0705869   0.159945   -0.0795504   -0.062783   -0.0290745   -0.0253484   -0.0553863   0.0384735   0.0762263   -0.00252492   -0.0103671   0.00529191   0.0620242   -0.0671529   0.0341336   0.0785283   -0.000484623   -0.0690809   -0.0143445   0.0430643   0.182845   -0.0585104   -0.0298722   -0.00158076   
-0.0939049   -0.0277718   -0.0200936   0.0819478   -0.0151675   0.0328531   -0.0413818   0.00203463   0.0183867   0.0148927   -0.0678093   0.0714566   0.0927051   0.0183018   -0.0084829   -0.0657173   0.0163423   0.0710045   0.0179557   0.0398643   0.0170701   0.0037083   -0.00486783   -0.0422353   -0.0573552   -0.0469679   -0.0374654   -0.0623253   0.0130907   0.0544094   0.0457221   0.0172683   
0.141945   -0.0762311   0.0666448   0.054424   0.121764   -0.0128669   -0.0485427   0.113997   0.0702127   0.0583631   -0.0361151   0.0812746   -0.0493262   0.0647311   -0.0404459   -0.000961601   -0.00495093   -0.0395827   0.0659347   0.00715462   -0.0336231   -0.00386776   -0.0504842   0.0220763   -0.0465088   0.0246848   0.0876687   0.0659908   0.0683754   0.0130775   0.0385332   0.102421   
-2.07122   1.0757   0.232322   -0.0403565   -0.0503944   -0.702776   0.361937   -0.30537   0.333319   -0.686589   0.928616   2.1951   0.0798942   1.17658   0.036093   -0.00619761   -0.400563   -0.177532   1.68671   -0.527072   -0.405415   1.13281   -0.177158   0.715154   0.0560358   -0.0926722   -0.0662789   -0.065491   -0.435357   1.278   -0.034327   -0.516198   
-0.302931   -0.514413   -0.422105   -0.035755   0.037235   0.429104   0.878881   -0.00160693   -0.302902   -0.0157434   0.605844   1.12406   -0.0360934   2.19877   -0.239534   -0.0301185   0.251247   0.0332963   0.938449   -0.141736   0.107828   2.13532   -0.362926   1.27391   -0.300365   0.0346841   0.0758738   0.0453568   0.216982   1.24796   -0.220352   0.0933391   
0.0277227   -0.050893   0.065172   -0.0410073   -0.00900555   0.0487065   0.0446101   0.021709   0.0926714   -0.0795994   0.0855843   0.0217411   0.000249947   -0.00487716   -0.0173104   0.025752   0.0248013   -0.00606815   -0.0776447   -0.0619483   0.0251859   -0.037712   -0.0604582   -0.0727206   -0.0125571   -0.0461985   -0.0741893   0.0741017   -0.0340002   0.0534063   0.0191722   -0.0764431   
-0.0389885   0.0672816   0.0686702   -0.0618308   0.0434512   0.0443965   -0.0707979   -0.0646614   0.0772741   0.0819472   -0.0204347   0.00517411   0.0502873   0.0545706   -0.0559239   0.0423457   0.0129876   -0.00526704   -0.0390632   0.0630303   -0.062899   0.0140504   0.0525999   0.0655672   0.0679652   -0.0321203   0.0162561   0.0309218   -0.0174332   0.028166   0.0898622   0.0464901   
0.0774343   0.0916781   0.0366417   -0.0755512   0.0229962   0.0636659   -0.0214228   0.0481457   0.00883251   -0.00584384   -0.0781414   0.0176341   0.0163042   0.00681906   0.0797415   -0.0219355   -0.0320295   0.047649   -0.0142769   -0.0232012   0.0153856   0.0934191   0.077696   -0.0418831   -0.0354422   -0.0278317   0.0707851   -0.0586637   0.0757947   -0.0393944   0.0745717   0.0161921   
-0.0379203   0.0857445   -0.00249519   0.0513448   -0.0771694   -0.00436979   0.0440867   -0.0252147   0.037101   -0.0484576   -0.0522762   -0.0028637   -0.0469515   0.0814345   0.0947436   0.0614441   -0.0521   0.0219707   0.0825454   -0.00937407   0.0700427   -0.0608695   -0.0326437   -0.0339254   0.037523   -0.0204721   0.0945674   0.00859752   0.0296988   0.0173991   0.0420359   0.0201869   
-0.0288464   0.0746464   0.0945193   -0.0671662   0.069765   -0.0463533   0.00444243   -0.0520946   0.0329192   0.0353333   0.032241   0.0621438   0.0738347   0.0321876   0.0715061   0.0889863   0.0820113   -0.0762722   -0.0729235   0.0712123   0.0696635   0.0391626   0.0514783   0.018574   0.0182482   -0.0354636   0.0326148   0.0914057   -0.0380966   0.0644296   0.0883508   -0.0110457   
0.00694723   0.045267   0.0607712   0.0633828   0.0741871   -0.0747127   -0.0593153   -0.0568906   -0.0617721   -0.0615531   0.0903482   -0.0133903   0.0505811   0.0120797   -0.0552136   -0.0498462   0.0456409   0.0706783   0.0098526   0.0157541   -0.0335623   0.0556708   -0.0127387   -0.0373115   0.059217   0.038495   -0.055219   0.0539404   -0.0263736   0.0168009   -0.0130592   -0.054044   
0.042837   -0.053793   0.0942203   0.0678957   0.0550833   -0.0526714   -0.0387855   0.0289671   -0.0589415   0.0155618   -0.0231799   0.0749402   0.0637994   0.0483273   0.0266973   -0.0225977   -0.0647789   0.0422602   0.0612305   -0.0230998   0.0461643   0.050063   -0.0157189   0.0884843   0.0340034   -0.0755885   0.00577761   -0.0591498   -0.0253215   0.0138421   0.0635911   0.00761483   
-0.0516994   0.0377953   -0.0173638   -0.0732333   -0.0599669   -0.069217   0.0267667   0.0170199   -0.049467   0.0580367   0.0112893   -0.0629791   -0.0724108   0.042367   -0.0433251   0.0711376   0.0932749   0.0796721   -0.0735858   -0.062226   0.0532087   -0.0420594   -0.0705576   0.0789831   0.0622826   0.00703269   -0.0198526   -0.0227473   0.0334587   0.0691028   -0.0285954   0.0333251   
0.0139116   0.0170626   -0.0213373   -0.0241412   -0.00977462   0.0108673   -0.0495845   -0.0132247   -0.0531254   -0.00602542   -0.0717913   0.0632066   -0.0353354   -0.0551602   -0.0734896   0.0497266   0.0584159   0.0358032   0.0904657   0.0619782   0.0655458   -0.0608481   0.0869996   0.0601837   -0.0151794   -0.0671982   -0.0777355   0.0437342   0.026959   0.0703311   0.0908663   -0.0245524   
0.0763288   0.0677729   -0.0752307   0.0314986   -0.0745845   0.0220295   -0.0774151   -0.0642822   -0.0186082   0.0631906   -0.0730944   0.0743046   -0.0436937   -0.0693719   -0.019655   -0.000476394   -0.0346411   0.0752767   -0.0717272   -0.00643666   -0.0302564   0.0277387   0.0485463   0.0760457   0.063479   0.00990066   0.00138218   0.0263395   -0.00922452   -0.0454828   -0.0452425   0.0543142   
0.043307   -0.0146026   -0.0467219   0.0904764   -0.0260265   0.0229214   -0.0139457   -0.0457071   0.001489   -0.0577985   -0.0284779   -0.0533924   0.0174044   0.0488293   0.0146539   -0.0751613   0.0199039   -0.0255832   -0.0204187   0.0820647   -0.0140365   -0.0430261   -0.0419846   0.0885003   -0.0688005   -0.016787   -0.0234362   -0.00840205   -0.0559133   0.0578605   -0.00175283   0.0582183   
0.0687075   0.0521459   -0.0386573   -0.0199434   -0.0021427   -0.0535687   0.0359207   0.0509229   0.0256665   -0.030721   -0.0339415   0.0118821   0.071442   0.0477345   -0.0467432   -0.0770359   -0.0260479   -0.0037022   0.0239735   -0.017524   -0.0320455   0.0343506   -0.0132995   -0.0225443   -0.00795343   0.0843612   0.0717304   0.0114975   0.0646753   0.0657808   -0.0161782   0.0434352   
0.0274664   -0.0130859   -0.0390258   0.0579833   0.0176127   -0.0503429   -0.00535783   -0.0230143   -0.0314794   0.0943858   -0.0706484   0.0823424   0.0254849   0.0748868   -0.0776768   0.00915296   0.000495621   0.0156847   -0.0441316   0.0552702   -0.0719301   0.0915712   -0.0167763   0.0657808   0.0211483   -0.0183465   -0.0743602   -0.0114997   -0.0110938   0.0629075   0.0513181   -0.015799   
0.0406259   -0.00465285   0.0790312   -0.0125571   0.0373841   0.0639169   -0.0129791   -0.0731639   -0.00926191   0.0542021   -0.00489853   -0.0243175   -0.0547971   -0.0229769   0.0753674   -0.058386   -0.00637791   0.0440707   -0.0404465   -0.033621   0.0372506   0.00955885   -0.00144307   0.0693057   0.0397447   0.00515809   -0.00808695   0.00553728   0.0367486   0.00810617   0.0179225   -0.0522816   
-0.0496806   0.0698024   0.0321822   -0.0378829   0.0449092   0.0197383   -0.00980667   0.012806   -0.0258983   0.0721416   0.0618233   0.0400705   0.0548697   0.000111087   0.0682269   -0.0784565   0.0935099   0.0546667   -0.0158684   0.0872185   -0.0749797   0.0684672   -0.0639938   -0.0281574   -0.0348494   -0.0783764   -0.0360083   -0.0240023   -0.0132461   0.084452   0.0781553   0.0941722   
0.0197757   -0.0106612   0.00198569   0.00614078   0.0115242   -0.0531201   0.00865627   0.0901773   0.0464847   -0.0166749   -0.0321043   -0.0708673   0.0373254   0.0893442   -0.0658951   0.0681094   -0.0135772   -0.0175988   0.0935687   0.0946475   0.0795225   0.0726543   0.0762487   0.0251698   -0.0391968   -0.0154465   0.000175176   -0.00624439   -0.0489169   -0.000770135   -0.0711184   -0.0233081   
0.0583091   0.019749   -0.0651848   -0.0258769   0.0671534   0.0243207   0.0742299   -0.0677911   0.0568511   -0.0653984   0.0165339   0.00197501   0.0840248   0.0641145   0.0835548   0.0684298   -0.0452638   0.0739308   -0.0583433   0.0210094   -0.0775326   0.0507039   0.0272634   0.0490323   0.0862145   0.0591423   0.0235943   -0.0168618   0.0254796   0.0339554   -0.00567293   -0.058605   
-0.0536648   0.0385484   0.066897   0.0761419   -0.024686   -0.0447565   0.0710895   -0.0698633   -0.0747394   0.0345428   -0.0742106   -0.0768383   0.0200053   -0.0319547   0.0794478   0.0525999   0.00191626   0.0126191   -0.00294382   0.0791273   0.084185   0.0804198   -0.0505939   -0.0438592   -0.0530132   -0.0276981   0.0722378   0.0489575   -0.0607253   -0.00563555   0.026035   0.0773649   
-0.0146347   0.0599594   0.049294   0.00273873   0.00811686   0.0170679   0.0857552   0.0431628   -0.00711493   0.00341166   0.0535879   0.0627419   0.00391369   0.0689853   0.0370103   0.0686915   0.0275091   -0.0314527   -0.0317518   -0.037728   -0.0464281   -0.0611846   0.0303717   -0.072822   0.0948344   0.0376939   -0.0510746   -0.048527   -0.0695909   0.085408   -0.022085   0.041646   
0.0229962   0.0599274   -0.00207862   -0.0250705   0.0712764   0.0114228   0.0570861   -0.0265606   -0.0280399   0.0482205   -0.00234031   -0.0787983   0.00297372   -0.0160179   -0.076176   0.0827323   0.00216193   0.0735302   0.0285665   0.0691989   -0.0468661   -0.0228541   -0.0398216   0.0608032   -0.0724642   0.00566546   -0.0786648   -0.0185601   0.0454166   0.0362465   0.00620487   -0.0657402   
-0.0220797   -0.0238902   -0.0314634   0.0442042   0.0540899   -0.0358535   -0.0487193   0.0411173   -0.00416684   -0.0123115   -0.00440184   0.0545386   -0.0319868   0.0793249   0.0848045   -0.0212732   -0.0323766   0.0710895   -0.0588133   -0.0708834   -0.0360244   0.0708545   -0.0187844   0.023621   -0.0359977   -0.0617026   0.0219814   0.0850609   -0.0355971   -0.0247233   -0.0555074   -0.0518062   
0.014937   0.0579086   -0.0432611   0.0925112   0.00444777   -0.049686   -0.0631019   -0.0407082   0.0939479   -0.0477526   0.0498441   -0.0258235   0.00844798   0.070502   0.0172015   0.0836563   0.0367272   0.0164591   -0.0658631   -0.0482814   0.0257894   -0.0303845   0.0132066   -0.0747714   0.0942042   0.0343933   0.0482151   0.039013   0.0510991   0.0800993   0.00371609   0.0194072   
0.0199199   -0.00858898   0.0729695   0.00726234   -0.0461611   0.0942203   0.0348312   0.0590408   0.0168223   0.0340675   -0.0723307   0.0720455   0.0422869   0.0722324   -0.0543751   -0.0575582   0.0433978   -0.0733882   0.000281991   0.0271619   -0.0131553   -0.00266076   0.00320338   -0.0318105   -0.0707765   -0.0705416   0.0872346   -0.0245524   -0.0472079   0.0525358   0.072147   0.00181478   
-0.0501506   -0.0505565   0.0175166   0.0313598   0.092351   0.0443484   -0.056693   0.0644029   -0.0639137   -0.0629951   0.0362091   0.0455127   -0.0288678   0.0734555   -0.0529812   0.0680132   0.0676661   -0.0447778   0.0723286   0.0510671   0.0290365   0.00212455   -0.0743815   -0.0769825   0.0262326   -0.079263   -0.00891476   0.0319793   0.000404828   -0.00636723   0.0653963   0.0173189   
0.00779641   0.0665552   -0.0444948   0.0631532   0.0686541   0.0234394   0.0879182   -0.032617   0.0944713   0.0266759   0.022414   -0.0525646   0.0301955   -0.0626907   -0.0493175   0.0162294   0.085643   0.0426981   0.0228199   -0.0754817   -0.0321683   0.056317   -0.0427964   0.00321406   -0.036505   0.0921854   0.0766652   0.00169195   -0.0165734   0.0536627   -0.0735644   -0.0692224   
-0.0570829   0.0889863   -0.00808695   0.00647191   0.0400117   -0.0465723   0.0465755   0.0279737   -0.0692331   -0.0696229   -0.00189703   0.0111344   0.08826   -0.0738208   0.088244   -0.0390579   -0.0304646   0.0911493   0.0141679   0.0790953   -0.0477099   -0.0685441   -0.0479395   -0.0097586   0.0903749   -0.035533   0.0756986   0.0331382   0.0249402   0.0820914   -0.0244296   0.0500256   
-0.0745257   0.0747212   -0.00343516   -0.0543912   -0.0276981   -0.0195268   -0.050455   0.0741124   0.00489639   -0.0628562   0.014937   -0.0496005   -0.00229225   0.0016599   -0.0063245   -0.00602008   0.0126618   -0.0355918   -0.0264003   0.0768094   -0.0599188   -0.0266781   -0.0333807   -0.0664666   -0.0476885   0.0699786   0.00975646   -0.0696603   0.0566375   -0.0223734   0.0354508   0.0758535   
0.0218265   0.0434565   -0.0458834   -0.0296635   -0.010031   -0.0500385   -0.0455522   0.0267186   0.0728573   -0.0522655   0.0644029   0.00947874   -0.05547   -0.00044969   0.0283102   -0.0498889   0.0544104   0.0130357   -0.0567945   0.0101677   0.0474567   0.0518949   0.084671   -0.0245097   0.0408716   0.0278242   0.0152734   0.0277921   -0.00620701   0.0381852   -0.043934   -0.0229662   
0.0194072   -0.0233882   -0.0359282   0.000885495   0.0260724   -0.0685121   0.0712391   0.0746838   -0.0382728   -0.000385601   0.0778402   0.0881051   -0.0767048   -0.020125   0.0558097   -0.0679086   0.00527024   0.02431   0.0799124   -0.0228648   0.0242619   0.0863907   0.067335   0.00148366   0.0436808   -0.0561589   -0.00650075   -0.0345503   0.0852745   0.0859101   -0.0352446   -0.00968917   
-0.048244   -0.00768639   0.0657862   -0.0370498   -0.00275155   0.0438731   -0.0127921   -0.0251506   0.0947223   0.0919718   -0.0735591   0.0914698   0.0871758   0.0518949   -0.0328253   -0.0393516   0.0218319   -0.0777836   -0.0445108   0.0811568   -0.0460649   0.0452297   0.0530859   -0.0101485   0.0694766   0.0605736   -0.0394531   0.0887513   0.0385484   -0.00785195   -0.0337919   -0.0796208   
