-0.049456   0.0100975   0.183188   0.127802   0.118349   -0.308889   0.121835   0.318374   0.273361   0.208387   0.179354   -0.0539841   0.409219   0.0677372   0.249046   0.00196759   0.273399   0.0365834   0.0618677   0.330968   0.135451   0.0910666   0.182224   0.224304   -0.0258587   0.220028   0.294291   0.235658   0.241628   -0.0261431   0.091982   0.3042   
-0.0483388   0.212639   0.0627049   -0.0418892   0.0200886   0.0111943   0.0390283   0.0696948   0.0181844   0.0352971   0.0683787   0.0472632   -0.0228371   -0.046963   0.0738928   0.0180716   0.0223332   -0.0260544   0.0981416   0.0939959   -0.0465569   0.0312704   0.0536949   0.0974359   -0.0241603   -0.0442122   0.0301702   -0.000450232   0.0639015   -0.0122877   0.0341841   0.0577017   
0.163174   0.552492   0.120929   -0.0366499   -0.00200573   -0.046427   -0.0463607   -0.0333109   0.129589   0.0234215   0.021785   -0.0256245   0.00504207   0.0113685   0.0760621   0.0167174   -0.0618958   0.0590576   0.00433499   0.0462691   -0.0182283   0.0250956   0.127655   -0.0442693   0.00414083   0.0443809   -0.0731554   0.0392495   -0.0909328   0.0420148   0.104692   0.106383   
-0.741375   -1.45677   0   0   0   0   0   0   0   0   0   0   0   0   0   0   0   0   0   0   0   0   0   0   0   0   0   0   0   0   0   0   
